<?xml version="1.0"?>
<opencv_storage>
<stage7>
  <maxWeakCount>18</maxWeakCount>
  <stageThreshold>-2.2628726959228516e+00</stageThreshold>
  <weakClassifiers>
    <_>
      <internalNodes>
        0 -1 61927 1.0062242858111858e-02</internalNodes>
      <leafValues>
        -9.0302616357803345e-01 -6.2057876586914062e-01</leafValues></_>
    <_>
      <internalNodes>
        0 -1 4280 1.0789200663566589e-02</internalNodes>
      <leafValues>
        -6.2605881690979004e-01 -9.8063103854656219e-02</leafValues></_>
    <_>
      <internalNodes>
        0 -1 119597 2.5500747142359614e-05</internalNodes>
      <leafValues>
        -3.3588692545890808e-01 1.6807390749454498e-01</leafValues></_>
    <_>
      <internalNodes>
        0 -1 162331 -3.0288862762972713e-04</internalNodes>
      <leafValues>
        -4.7801107168197632e-01 1.2742923200130463e-01</leafValues></_>
    <_>
      <internalNodes>
        0 -1 89755 9.2379171401262283e-03</internalNodes>
      <leafValues>
        -1.0880990326404572e-01 5.5122280120849609e-01</leafValues></_>
    <_>
      <internalNodes>
        0 -1 92517 4.1825242806226015e-04</internalNodes>
      <leafValues>
        -2.0103132724761963e-01 3.5013377666473389e-01</leafValues></_>
    <_>
      <internalNodes>
        0 -1 7045 2.5244781281799078e-03</internalNodes>
      <leafValues>
        -4.3864676356315613e-01 1.7230804264545441e-01</leafValues></_>
    <_>
      <internalNodes>
        0 -1 71310 6.6933794878423214e-03</internalNodes>
      <leafValues>
        -1.5153914690017700e-01 5.2441531419754028e-01</leafValues></_>
    <_>
      <internalNodes>
        0 -1 49476 3.4932733979076147e-04</internalNodes>
      <leafValues>
        1.5424157679080963e-01 -5.0199300050735474e-01</leafValues></_>
    <_>
      <internalNodes>
        0 -1 109968 -1.0500228032469749e-02</internalNodes>
      <leafValues>
        2.4331572651863098e-01 -2.7245393395423889e-01</leafValues></_>
    <_>
      <internalNodes>
        0 -1 75224 1.7950208857655525e-03</internalNodes>
      <leafValues>
        -2.2843897342681885e-01 2.9204729199409485e-01</leafValues></_>
    <_>
      <internalNodes>
        0 -1 154943 -2.8474611099227332e-05</internalNodes>
      <leafValues>
        2.2481769323348999e-01 -2.8921100497245789e-01</leafValues></_>
    <_>
      <internalNodes>
        0 -1 30087 4.8863168805837631e-02</internalNodes>
      <leafValues>
        9.0618230402469635e-02 -6.7487806081771851e-01</leafValues></_>
    <_>
      <internalNodes>
        0 -1 99501 -2.5565014220774174e-03</internalNodes>
      <leafValues>
        2.5153779983520508e-01 -2.4742208421230316e-01</leafValues></_>
    <_>
      <internalNodes>
        0 -1 111100 -3.4264703281223774e-03</internalNodes>
      <leafValues>
        -6.0593390464782715e-01 1.0551623255014420e-01</leafValues></_>
    <_>
      <internalNodes>
        0 -1 72315 1.9485049415379763e-04</internalNodes>
      <leafValues>
        -2.3181234300136566e-01 2.7630093693733215e-01</leafValues></_>
    <_>
      <internalNodes>
        0 -1 70716 -5.5601401254534721e-04</internalNodes>
      <leafValues>
        -7.8243786096572876e-01 8.5966147482395172e-02</leafValues></_>
    <_>
      <internalNodes>
        0 -1 69780 -1.5210681594908237e-03</internalNodes>
      <leafValues>
        3.0826035141944885e-01 -2.1291330456733704e-01</leafValues></_></weakClassifiers></stage7>
</opencv_storage>
