<?xml version="1.0"?>
<opencv_storage>
<stage3>
  <maxWeakCount>14</maxWeakCount>
  <stageThreshold>-2.4854130744934082e+00</stageThreshold>
  <weakClassifiers>
    <_>
      <internalNodes>
        0 -1 121661 1.6476672887802124e-01</internalNodes>
      <leafValues>
        -9.3441385030746460e-01 -6.0070669651031494e-01</leafValues></_>
    <_>
      <internalNodes>
        0 -1 3404 9.5214277505874634e-02</internalNodes>
      <leafValues>
        -7.4718606472015381e-01 -5.2972029894590378e-02</leafValues></_>
    <_>
      <internalNodes>
        0 -1 144299 -4.0764652192592621e-02</internalNodes>
      <leafValues>
        2.0030972361564636e-01 -5.0586247444152832e-01</leafValues></_>
    <_>
      <internalNodes>
        0 -1 48826 -5.1948307082056999e-03</internalNodes>
      <leafValues>
        2.4510501325130463e-01 -3.8718032836914062e-01</leafValues></_>
    <_>
      <internalNodes>
        0 -1 85919 9.6424575895071030e-04</internalNodes>
      <leafValues>
        -4.3047690391540527e-01 2.5489193201065063e-01</leafValues></_>
    <_>
      <internalNodes>
        0 -1 8897 3.9448000490665436e-02</internalNodes>
      <leafValues>
        -2.0269154012203217e-01 5.4362982511520386e-01</leafValues></_>
    <_>
      <internalNodes>
        0 -1 89816 2.3622550070285797e-03</internalNodes>
      <leafValues>
        1.5641871094703674e-01 -6.6689121723175049e-01</leafValues></_>
    <_>
      <internalNodes>
        0 -1 81222 -6.7760953679680824e-03</internalNodes>
      <leafValues>
        4.2445957660675049e-01 -2.3384411633014679e-01</leafValues></_>
    <_>
      <internalNodes>
        0 -1 71407 2.2948287427425385e-02</internalNodes>
      <leafValues>
        -1.8093463778495789e-01 5.9228664636611938e-01</leafValues></_>
    <_>
      <internalNodes>
        0 -1 98749 6.1614913865923882e-03</internalNodes>
      <leafValues>
        1.2149723619222641e-01 -9.2712354660034180e-01</leafValues></_>
    <_>
      <internalNodes>
        0 -1 151485 4.0506827645003796e-05</internalNodes>
      <leafValues>
        -3.3585372567176819e-01 2.8311234712600708e-01</leafValues></_>
    <_>
      <internalNodes>
        0 -1 22199 -1.4365178067237139e-03</internalNodes>
      <leafValues>
        3.4342059493064880e-01 -2.7492719888687134e-01</leafValues></_>
    <_>
      <internalNodes>
        0 -1 20049 4.7358334064483643e-02</internalNodes>
      <leafValues>
        1.1068457365036011e-01 -7.4562829732894897e-01</leafValues></_>
    <_>
      <internalNodes>
        0 -1 162334 -3.7217835779301822e-04</internalNodes>
      <leafValues>
        -6.2828886508941650e-01 1.0810592770576477e-01</leafValues></_></weakClassifiers></stage3>
</opencv_storage>
