<?xml version="1.0"?>
<opencv_storage>
<stage1>
  <maxWeakCount>8</maxWeakCount>
  <stageThreshold>-2.2714636325836182e+00</stageThreshold>
  <weakClassifiers>
    <_>
      <internalNodes>
        0 -1 144638 -1.7880791425704956e-01</internalNodes>
      <leafValues>
        -8.4033615887165070e-02 -9.3894666433334351e-01</leafValues></_>
    <_>
      <internalNodes>
        0 -1 2398 9.1660320758819580e-02</internalNodes>
      <leafValues>
        -7.6180040836334229e-01 4.1176825761795044e-01</leafValues></_>
    <_>
      <internalNodes>
        0 -1 78424 4.0670894086360931e-03</internalNodes>
      <leafValues>
        -7.0131880044937134e-01 1.8447113037109375e-01</leafValues></_>
    <_>
      <internalNodes>
        0 -1 93015 7.0328628644347191e-03</internalNodes>
      <leafValues>
        -2.7716860175132751e-01 7.6945209503173828e-01</leafValues></_>
    <_>
      <internalNodes>
        0 -1 74457 3.4637330099940300e-04</internalNodes>
      <leafValues>
        -2.7932178974151611e-01 6.2526655197143555e-01</leafValues></_>
    <_>
      <internalNodes>
        0 -1 3341 4.6445019543170929e-03</internalNodes>
      <leafValues>
        -3.1182789802551270e-01 5.3718882799148560e-01</leafValues></_>
    <_>
      <internalNodes>
        0 -1 145559 -5.2254650741815567e-02</internalNodes>
      <leafValues>
        4.2274895310401917e-01 -4.0611037611961365e-01</leafValues></_>
    <_>
      <internalNodes>
        0 -1 86273 -1.4506726984109264e-05</internalNodes>
      <leafValues>
        5.6217050552368164e-01 -3.4857428073883057e-01</leafValues></_></weakClassifiers></stage1>
</opencv_storage>
